0.215161442756653,0.683308362960815,-0.226169466972351,-0.93713641166687,-0.984370470046997,0.578303813934326,-0.248737215995789,0.470350712537766,0.305896490812302,0.384442538022995,0.172198414802551,0.871504306793213,0.646544933319092,-0.652013540267944,-0.503111600875854,0.507867574691772,-0.658178329467773,-0.111966729164124,0.93364953994751,0.743570327758789,-0.0898996591567993,-0.685481786727905,0.972974300384521,0.556863069534302,-0.868386030197144,0.872475624084473,-0.890670299530029,0.851902723312378,0.584801435470581,0.0151416063308716,0.819234609603882,0.675607919692993,0.107081770896912,-0.280147910118103,-0.308127284049988,-0.669596910476685,0.860857486724854,-0.737298011779785,0.229113221168518,0.221548676490784,-0.463268876075745,-0.805430889129639,-0.780817270278931,-0.62844705581665,0.882869720458984,-0.398729681968689,0.209102034568787,0.189777970314026,0.510729789733887,0.861136913299561,0.38072606921196,0.805266380310059,-0.632889270782471,-0.357776045799255,-0.383457779884338,-0.177794337272644,-0.486017823219299,0.782188177108765,-0.506620645523071,-0.891496658325195,-0.777357339859009,-0.0662039518356323,-0.860844612121582,-0.292483448982239,-0.168006539344788,0.731396675109863,-0.829940319061279,0.136232495307922,0.957775354385376,-0.177834391593933,-0.993332624435425,0.593847990036011,0.0127557516098022,-0.296993136405945,0.571364164352417,0.791861295700073,0.082654595375061,-0.461034893989563,-0.643348932266235,-0.520958662033081,0.278237789869308,0.396120518445969,0.764027118682861,0.382020443677902,-0.270318388938904,0.626957893371582,-0.734232664108276,0.000739693641662598,-0.948343276977539,0.579556703567505,-0.902904510498047,0.492089718580246,-0.115547299385071,0.194987416267395,-0.251944422721863,0.547643184661865,0.0631493330001831,-0.600907802581787,-0.0556997060775757,-0.12853729724884,0.435454338788986,0.035943865776062,0.823882579803467,0.299015492200851,0.0953067541122437,0.114951491355896,-0.966206312179565,-0.128753542900085,0.364094227552414,-0.765952587127686,0.19468891620636,-0.195029139518738,-0.0473934412002563,0.450880497694016,-0.562112808227539,-0.82454776763916,0.0592700242996216,-0.175120949745178,0.191157937049866,0.963731527328491,-0.877746343612671,0.233460783958435,0.613178014755249,-0.310505270957947,0.406240195035934,-0.626528263092041,0.980107307434082,-0.31570303440094,-0.177429556846619,0.325363129377365,-0.807227373123169,0.418225258588791,-0.319239258766174,0.17799437046051,0.610294818878174,-0.591768980026245,0.307010143995285,0.784070730209351,0.338545292615891,-0.567365407943726,-0.796116352081299,-0.0137594938278198,-0.837571382522583,-0.982705116271973,-0.0387665033340454,-0.917600870132446,0.176828026771545,-0.172508358955383,-0.0437899827957153,-0.258105635643005,0.364152878522873,-0.299150347709656,-0.0934840440750122,0.101772904396057,-0.706299781799316,-0.418103337287903,0.912418365478516,-0.770521640777588,-0.104948163032532,0.905821323394775,-0.5366051197052,0.326080054044724,0.333848208189011,-0.597488403320313,-0.497881054878235,-0.691851615905762,0.19432270526886,-0.223662257194519,0.492410868406296,0.410490244626999,-0.479827046394348,-0.101338505744934,-0.929489135742188,0.874621152877808,-0.722648143768311,-0.168756604194641,-0.0603891611099243,-0.817606449127197,-0.134532332420349,-0.729507684707642,0.717172145843506,0.531400203704834,0.614597320556641,-0.538647651672363,0.603432655334473,-0.346983075141907,0.409429520368576,-0.844268560409546,-0.540828227996826,-0.258750319480896,-0.22466766834259,-0.902297019958496,-0.457778334617615,0.92046070098877,0.288667649030685,-0.764004230499268,0.634642124176025,-0.0115889310836792,0.743406057357788,0.197622418403625,0.32810851931572,-0.248476624488831,0.0435374975204468,0.06035315990448,0.317629307508469,0.759449481964111,-0.0107287168502808,-0.144855618476868,0.699965476989746,-0.72047758102417,0.216628909111023,-0.25194251537323,0.483723133802414,-0.554120063781738,0.837055921554565,-0.895548105239868,0.432524889707565,0.892392635345459,0.748664379119873,-0.397657513618469,0.921010732650757,0.770401000976563,-0.531968832015991,0.751785039901733,-0.0204809904098511,0.195886969566345,-0.179160475730896,-0.321952700614929,0.490349501371384,0.791497945785522,-0.283499360084534,0.886494398117065,-0.648008108139038,-0.472626328468323,0.910516977310181,-0.189197897911072,-0.983873128890991,0.98609447479248,-0.909599781036377,-0.392603993415833,0.441980808973312,0.31263992190361,0.857780694961548,0.66249418258667,0.334384888410568,0.741282224655151,-0.213804841041565,0.188226580619812,0.437261790037155,0.613140106201172,0.671095132827759,-0.580507755279541,-0.815874576568604,-0.6393141746521,-0.322901606559753,0.437078684568405,-0.581822872161865,0.401825398206711,-0.808148384094238,0.584322929382324,-0.618112325668335,0.58025074005127,-0.152796864509583,-0.353777766227722,0.842809677124023,-0.152528882026672,-0.843882322311401,-0.531723976135254,-0.322797894477844,-0.693579196929932,-0.278472065925598,0.63974142074585,-0.726270914077759,-0.392675280570984,-0.677288770675659,-0.303068995475769,0.563167095184326,-0.190070986747742,0.948288917541504,0.882470607757568,-0.801944255828857,0.686165332794189,0.753467798233032,0.504722356796265,0.266680687665939,0.755433559417725,0.544221162796021,0.826419115066528,0.552911758422852,-0.896059036254883,-0.287941098213196,-0.103903412818909,0.960233926773071,-0.754478931427002,0.12394654750824,-0.462366461753845,0.945532321929932,-0.704126119613647,0.00489985942840576,0.937097311019897,-0.228611826896667,0.297745674848557,0.636501789093018,-0.47931182384491,0.581460475921631,0.445872277021408,0.674664258956909,0.366576880216599,-0.37265956401825,0.115860104560852,-0.0816115140914917,0.267783135175705,-0.783853530883789,0.479985445737839,-0.946678638458252,0.317965000867844,0.23296582698822,-0.243500828742981,-0.482121109962463,0.0418792963027954,-0.726912260055542,-0.0504900217056274,0.640671968460083,0.730085134506226,-0.590688943862915,0.310091704130173,-0.710845232009888,-0.645013570785522,0.628838062286377,-0.652795553207397,0.0895897150039673,0.382831782102585,-0.78533673286438,-0.812338829040527,-0.66370415687561,0.746611356735229,0.153045296669006,0.218469262123108,-0.418580412864685,-0.373791813850403,0.636531114578247,-0.742345094680786,0.524628162384033,0.568396329879761,-0.762981176376343,-0.119050621986389,0.962555885314941,-0.0976368188858032,0.847214698791504,-0.348679900169373,0.923128604888916,-0.0395334959030151,-0.656686067581177,0.207335352897644,0.817707300186157,-0.451383233070374,-0.922561407089233,0.367649525403976,-0.522577047348022,0.447094172239304,-0.245891213417053,-0.136822104454041,0.664188623428345,0.901872634887695,0.457971066236496,0.0275291204452515,-0.0600994825363159,-0.00780403614044189,-0.862640142440796,0.95419454574585,-0.0138934850692749,0.510644435882568,0.846225261688232,0.24815571308136,-0.768031120300293,-0.541621923446655,0.277326792478561,0.629603624343872,0.249155640602112,-0.694825410842896,0.371828526258469,-0.0653449296951294,0.659377098083496,0.434552639722824,-0.0722225904464722,0.555633306503296,0.884572505950928,-0.425079464912415,-0.215078234672546,-0.284723162651062,-0.923756837844849,0.323684900999069,-0.131360650062561,0.657964706420898,0.275897949934006,-0.430193543434143,-0.513381958007813,-0.951578378677368,0.716503143310547,-0.0535241365432739,-0.412495732307434,-0.063351035118103,0.312267988920212,0.651484489440918,0.859953880310059,-0.770515918731689,0.795224905014038,-0.648968458175659,-0.319941878318787,0.0813754796981812,-0.458256602287292,-0.584839582443237,0.922313213348389,-0.910043478012085,0.615313053131104,-0.124479651451111,0.0972796678543091,-0.645474672317505,-0.328850150108337,-0.153663039207459,-0.699345111846924,0.809870004653931,-0.120614171028137,-0.592921495437622,-0.427626490592957,0.12329375743866,0.686405420303345,0.539736986160278,-0.98866605758667,-0.954898357391357,-0.154553532600403,-0.635525465011597,-0.622206926345825,-0.120557904243469,0.718231201171875,0.168232798576355,-0.350484013557434,0.813216924667358,-0.729368448257446,0.491256207227707,0.2822045981884,-0.534505128860474,0.5582435131073,-0.726799964904785,0.317737072706223,0.726793766021729,-0.483746647834778,-0.743501663208008,-0.503394365310669,0.510105609893799,-0.566992282867432,-0.680224180221558,-0.500449419021606,-0.100533604621887,-0.544270753860474,0.161942839622498,0.52229905128479,0.845619440078735,-0.0123900175094604,0.4912950694561,-0.0488983392715454,0.0756357908248901,0.515513896942139,0.082422137260437,-0.827528238296509,0.149927496910095,0.828845262527466,0.782374620437622,-0.234801411628723,-0.653516054153442,0.389074772596359,-0.657967805862427,0.27307054400444,-0.875423908233643,0.472362250089645,-0.435672163963318,0.297028750181198,0.622142553329468,0.509220361709595,-0.823538780212402,-0.0438984632492065,0.999953269958496,-0.232066035270691,-0.827413082122803,-0.590192794799805,-0.804435729980469,0.555849075317383,0.938327312469482,0.471067398786545,-0.0618096590042114,-0.987971544265747,0.541438341140747,-0.581860303878784,-0.32235586643219,0.839376926422119,-0.137315154075623,0.595698595046997,-0.0125683546066284,-0.750855207443237,-0.796568155288696,0.0775877237319946,0.824469566345215,0.66117262840271,0.0355278253555298,-0.283970713615417,0.828493595123291,0.946607351303101,-0.420780539512634,0.343838423490524,-0.55323600769043,0.701892852783203,-0.934998989105225,0.0999141931533813,-0.492008566856384,0.761242389678955,0.328428953886032,0.49869105219841,0.753535747528076,-0.0831552743911743,0.883894920349121,0.99345326423645,-0.329618334770203,-0.0983403921127319,-0.37400233745575,-0.458350539207459,-0.412735342979431,0.827286720275879,0.89146876335144,-0.339358687400818,-0.3711177110672,-0.974136352539063,-0.723596572875977,-0.0635164976119995,0.144909977912903,0.30081507563591,0.574159860610962,0.662068605422974,0.724017381668091,-0.246966481208801,-0.119436860084534,-0.934605121612549,-0.369422078132629,-0.50982403755188,-0.439668297767639,0.226000666618347,-0.0577265024185181,0.635179996490479,-0.462143301963806,-0.164477467536926,-0.93805718421936,-0.609610795974731,-0.0799812078475952,0.710915803909302,-0.12872326374054,-0.70676589012146,-0.302521824836731,-0.446448683738709,-0.400046229362488