0.352463454008102,0.683308362960815,-0.226169466972351,0.0129877328872681,-0.826087713241577,-0.871037483215332,-0.248737215995789,-0.27536928653717,0.87556004524231,0.171620965003967,0.172198414802551,0.871504306793213,0.7490234375,-0.652013540267944,-0.503111600875854,0.132013440132141,0.96591854095459,0.0502556562423706,0.93364953994751,-0.603521823883057,0.548895597457886,0.305112332105637,0.972974300384521,-0.990181922912598,-0.0889910459518433,0.872475624084473,-0.890670299530029,0.918975591659546,0.584801435470581,-0.960483312606812,0.819234609603882,-0.413203358650208,0.107081770896912,0.408256977796555,-0.308127284049988,-0.669596910476685,0.860857486724854,-0.737298011779785,0.304497927427292,0.681920528411865,0.614799499511719,-0.805430889129639,-0.41413414478302,0.0799514055252075,-0.120186924934387,-0.398729681968689,-0.500127553939819,0.189777970314026,-0.86160683631897,0.861136913299561,-0.21231472492218,0.659220933914185,-0.632889270782471,-0.357776045799255,0.310725659132004,-0.177794337272644,-0.462365746498108,0.782188177108765,-0.506620645523071,-0.891496658325195,-0.861186265945435,-0.73316216468811,-0.721343994140625,0.440052717924118,-0.34659206867218,-0.587882280349731,0.521949768066406,0.136232495307922,-0.33120334148407,-0.177834391593933,-0.993332624435425,0.593847990036011,0.0127557516098022,-0.296993136405945,0.571364164352417,0.791861295700073,0.082654595375061,-0.356055855751038,0.782191753387451,0.388479202985764,0.278237789869308,-0.0778735876083374,-0.493492722511292,0.382020443677902,0.855420351028442,0.351487368345261,-0.734232664108276,0.000739693641662598,-0.948343276977539,0.579556703567505,0.853513956069946,0.492089718580246,-0.358162999153137,0.81089973449707,-0.251944422721863,0.471739262342453,0.0631493330001831,-0.600907802581787,0.979365587234497,0.366589039564133,0.0842264890670776,0.035943865776062,0.524779558181763,0.299015492200851,0.0953067541122437,-0.116783261299133,0.041629433631897,-0.450704455375671,0.364094227552414,-0.765952587127686,0.19468891620636,0.975301504135132,0.930700540542603,-0.757311344146729,0.323285311460495,0.337523192167282,0.403270930051804,0.123718619346619,0.345072239637375,0.963731527328491,0.922452926635742,-0.141880869865417,0.354168146848679,-0.310505270957947,0.406240195035934,-0.808916568756104,0.245514750480652,-0.31570303440094,-0.177429556846619,0.325363129377365,-0.221283555030823,0.633273363113403,-0.319239258766174,0.17799437046051,-0.0744892358779907,-0.776748895645142,0.307010143995285,0.784070730209351,-0.0461574792861938,-0.470989584922791,0.980888366699219,-0.772177219390869,-0.837571382522583,-0.68314266204834,-0.0387665033340454,-0.917600870132446,0.941837072372437,-0.142071843147278,-0.0437899827957153,-0.725707292556763,0.03840172290802,-0.299150347709656,-0.0934840440750122,-0.932735443115234,-0.706299781799316,-0.418103337287903,0.912418365478516,0.872234582901001,-0.999870538711548,0.905821323394775,-0.0734940767288208,-0.883612871170044,0.573017597198486,0.565227746963501,0.187452435493469,-0.66111159324646,-0.097425103187561,-0.223662257194519,-0.648736953735352,0.391180247068405,0.716724157333374,-0.296480774879456,-0.929489135742188,0.787951231002808,-0.337157130241394,-0.168756604194641,-0.0603891611099243,-0.817606449127197,-0.17236340045929,-0.561882495880127,0.53991961479187,-0.532013893127441,0.614597320556641,-0.725859403610229,0.372736424207687,-0.346983075141907,0.409429520368576,-0.315053343772888,0.142860054969788,-0.258750319480896,-0.22466766834259,0.824837923049927,-0.457778334617615,0.14574134349823,0.637695550918579,-0.764004230499268,0.634642124176025,-0.56341814994812,0.743406057357788,0.100597023963928,0.396968096494675,-0.248476624488831,-0.268297076225281,0.06035315990448,0.317629307508469,-0.703366041183472,0.306868046522141,-0.789698600769043,0.699965476989746,-0.72047758102417,-0.0777887105941772,-0.25194251537323,0.483723133802414,-0.554120063781738,0.837055921554565,-0.00920498371124268,0.432524889707565,0.892392635345459,-0.626129627227783,-0.397657513618469,0.17172634601593,0.770401000976563,-0.531968832015991,-0.199697136878967,-0.004189133644104,-0.201174855232239,-0.179160475730896,-0.321952700614929,0.490349501371384,0.791497945785522,-0.759576082229614,-0.896527051925659,-0.0391663312911987,0.973500728607178,-0.210024237632751,-0.189197897911072,-0.983873128890991,0.98609447479248,-0.909599781036377,-0.392603993415833,0.441980808973312,-0.288148999214172,0.857780694961548,0.0569487810134888,0.646737337112427,0.741282224655151,-0.213804841041565,0.0834540128707886,0.503473997116089,0.613140106201172,0.671095132827759,-0.580507755279541,-0.815874576568604,0.711580276489258,-0.0918599367141724,0.437078684568405,0.127127528190613,0.290971487760544,0.892193794250488,0.349546879529953,0.614443063735962,-0.562061071395874,-0.152796864509583,-0.353777766227722,0.056348443031311,-0.44433581829071,0.381602734327316,-0.680906057357788,-0.349811196327209,-0.447035431861877,-0.278472065925598,0.746302843093872,-0.726270914077759,-0.392675280570984,-0.677288770675659,-0.303068995475769,0.119004368782043,-0.394161820411682,0.561776638031006,0.882470607757568,0.0715967416763306,0.29252764582634,0.753467798233032,0.504722356796265,0.0805689096450806,0.755433559417725,0.544221162796021,0.826419115066528,-0.640742301940918,0.514638662338257,-0.287941098213196,-0.103903412818909,0.825046062469482,-0.0186904668807983,0.854456901550293,-0.462366461753845,-0.829332828521729,-0.704126119613647,0.00489985942840576,0.937097311019897,-0.930185556411743,0.894757270812988,-0.471450686454773,-0.47931182384491,-0.122359395027161,0.404945582151413,0.790413856506348,-0.913973093032837,-0.392368912696838,0.115860104560852,0.458939999341965,-0.438380122184753,-0.412373900413513,-0.511163949966431,-0.982953548431396,-0.599261522293091,0.63779091835022,0.182610869407654,-0.482121109962463,0.830246686935425,-0.491553425788879,-0.691937685012817,0.640671968460083,0.730085134506226,-0.590688943862915,0.478637188673019,-0.710845232009888,-0.645013570785522,-0.844725131988525,-0.87923789024353,-0.946164608001709,-0.169896006584167,-0.481772541999817,-0.812338829040527,-0.66370415687561,-0.082478404045105,0.751584768295288,0.485392779111862,-0.418580412864685,-0.373791813850403,0.945543527603149,-0.742345094680786,-0.210028052330017,-0.0411909818649292,-0.762981176376343,-0.119050621986389,-0.300628781318665,-0.449689269065857,0.847214698791504,-0.0342293977737427,0.603271484375,0.838983297348022,-0.656686067581177,0.207335352897644,-0.921180725097656,-0.960261821746826,0.589281797409058,0.367649525403976,-0.446907639503479,0.447094172239304,-0.843796491622925,-0.136822104454041,0.270734518766403,0.901872634887695,-0.29037606716156,0.0336021184921265,-0.0600994825363159,0.522641897201538,-0.862640142440796,0.95419454574585,-0.0138934850692749,0.745741367340088,0.907574892044067,0.135196805000305,-0.768031120300293,0.859738349914551,-0.151008248329163,0.629603624343872,0.249155640602112,-0.694825410842896,0.371828526258469,-0.0804234743118286,0.659377098083496,0.00828683376312256,-0.0722225904464722,0.83701491355896,0.375348776578903,-0.340609431266785,-0.215078234672546,0.212737441062927,0.162546515464783,0.75826621055603,-0.131360650062561,0.566622972488403,0.275897949934006,-0.430193543434143,-0.912126064300537,0.706850290298462,0.765612363815308,0.242084383964539,-0.412495732307434,0.109126210212708,-0.297522664070129,0.651484489440918,0.859953880310059,-0.122604250907898,0.795224905014038,-0.648968458175659,-0.319941878318787,0.0813754796981812,-0.458256602287292,0.294268101453781,-0.450073599815369,0.876307010650635,-0.125328421592712,0.984833240509033,0.0972796678543091,-0.645474672317505,-0.328850150108337,-0.364134669303894,-0.0142585039138794,0.809870004653931,0.253624647855759,-0.592921495437622,-0.482580065727234,0.12329375743866,-0.639309406280518,0.539736986160278,-0.0154126882553101,-0.954898357391357,-0.93614935874939,-0.673894882202148,0.597634553909302,-0.120557904243469,0.718231201171875,0.168232798576355,0.414077013731003,0.874274730682373,-0.143559336662292,0.236266016960144,0.2822045981884,-0.534505128860474,-0.387105107307434,0.895559787750244,0.317737072706223,0.726793766021729,-0.53184986114502,-0.743501663208008,0.888609647750854,0.510105609893799,-0.150407433509827,0.727181196212769,-0.482511639595032,-0.100533604621887,-0.82928204536438,0.732081890106201,0.52229905128479,0.845619440078735,-0.0123900175094604,0.66280198097229,-0.773786783218384,0.0756357908248901,0.515513896942139,0.48260161280632,-0.827528238296509,0.149927496910095,0.837057590484619,-0.356914162635803,-0.193489670753479,-0.977983951568604,0.389074772596359,-0.370694756507874,0.27307054400444,-0.875423908233643,0.472362250089645,-0.435672163963318,0.438193053007126,-0.796549320220947,0.509220361709595,0.700466156005859,-0.967853546142578,0.553705215454102,0.660995960235596,-0.827413082122803,0.979713439941406,-0.621465682983398,-0.588592529296875,0.903119802474976,0.471067398786545,-0.0618096590042114,-0.987971544265747,0.218529582023621,-0.563935995101929,0.231698632240295,-0.307377934455872,-0.371394991874695,0.936986446380615,-0.0125683546066284,-0.750855207443237,-0.600225448608398,0.0775877237319946,0.824469566345215,0.66117262840271,-0.544234275817871,-0.283970713615417,0.828493595123291,0.946607351303101,-0.420780539512634,-0.102578043937683,-0.55323600769043,0.399457663297653,-0.934998989105225,0.511941194534302,-0.492008566856384,0.761242389678955,-0.215255856513977,0.615450620651245,-0.0374511480331421,-0.0831552743911743,0.883894920349121,-0.692844867706299,-0.329618334770203,-0.280897736549377,-0.883313417434692,0.0352157354354858,-0.421799302101135,-0.610325813293457,0.944968700408936,-0.339358687400818,-0.3711177110672,-0.922729015350342,-0.299334168434143,-0.0635164976119995,-0.969428539276123,-0.397357821464539,-0.572218418121338,0.662068605422974,-0.600479364395142,0.255064696073532,-0.119436860084534,0.661528348922729,-0.0550578832626343,-0.966328382492065,0.322640627622604,-0.467264771461487,-0.0577265024185181,-0.9373619556427,-0.388431429862976,-0.164477467536926,-0.578536748886108,-0.609610795974731,-0.429550290107727,-0.107371211051941,0.111683249473572,-0.70676589012146,-0.302521824836731,-0.446448683738709,-0.400046229362488